0.05841934790778642
-0.01887490432871237
0.0252081919818607
0.038569558283679466
-0.08868110832544233
-0.03236526967106333
-0.013928574910526372
0.12647270140518765
0.027333723429785482
0.0018039404439963002
-0.04659856588466908
0.056802985912837736
0.03511374534446043
0.08944112355461027
-0.0914490627949286
-0.019163813450081352
-0.12359824539654783
0.028166735461462526
0.07153306389561183
0.07037403195302736
0.08204845820208045
-0.01356155420045801
0.0842167097745797
0.07272077390405429
0.020517431120119126
0.020035672964811607
-0.035083473857165426
0.0729488277312302
0.047269166634778426
-0.014032111396801617
-0.04404879942557956
0.08897777898303472
-0.12051787587407808
0.11487679573849172
-0.03488927926413255
-0.08599129960074658
-0.054129570348757546
0.13210979842276363
0.04332110029097288
-0.09540350962268936
0.11184726843283348
0.17325509604387232
0.14597544521734981
0.14366489062740323
-0.0963343473151091
-0.013594850144115203
-0.13075272378097078
-0.08092297882126878
-0.017954153465866627
0.0027974098636523075
0.13228837811204877
-0.07766787796469006
-0.00489888863193116
0.011410911613457008
-0.016685943301563453
0.15029599466354637
0.03845319228840026
-0.04796064235064435
0.041006402648380465
-0.0022174178171672364
-0.06403788263762304
0.09890225232794575
0.2410207708405314
0.10036913745110913
0.16352721380481294
0.03004579711489131
0.08644150949380422
0.13116002122951395
0.03787414815019666
0.06009530838012994
-0.08336411187286612
0.026592582767739705
-0.008899206594759712
-0.07134481984177325
-0.0281365676005937
0.09957205357856104
0.02150302572087043
-0.038998428631536304
0.19488074190733912
0.07789578002593991
0.06863241196520653
0.0683667776251376
-0.0275921306448064
-0.031760726963594506
-0.09883620025341122
0.07037783495271582
-0.02330955038569322
-0.027580106575027935
0.008910606312255065
-0.05845595317598762
0.04114412779384199
0.15060622467083598
0.1147509328160185
-0.08168896030866243
-0.03577483211327093
-0.039066448697828215
0.21316859745355218
-0.1177315270371925
-0.004092534804589449
-0.18204437386934422
0.019237616553124358
0.022855885240208852
0.05484190817910689
0.07055695635672114
0.07722085937496045
-0.05401426611298596
-0.03809698298566102
-0.026072169582850253
0.0838929901139144
-0.10917793771110845
-0.028957647903109073
0.04203591898517109
-0.19855853600793322
-0.03199753711301718
-0.008594583148983337
-0.06572426682770494
-0.02939715114301453
0.07311785998468891
0.029064234815532008
0.00560519834495228
-0.045916660051205344
0.010156634907642846
0.049402117157910125
0.09211225573241373
-0.08072139433548402
0.11566613926658494
0.04396263969916249
-0.08857459594047977
0.02882860835343297
0.02372650011013885
-0.03577016160147994
-0.06878082821302592
-0.04418410545159624
0.0458842161422863
0.07289680180582638
-0.017982314759684228
-0.058308680063985964
-0.025595414244660084
-0.05521714895437613
0.10129581034296722
-0.12340991799757192
-0.07868127429035374
0.0008436315147216028
-0.03363834755680183
0.07829941458896253
0.058563863622793526
-0.002798350075872295
-0.13596313007381147
0.03467122227125722
0.001885501424514767
0.03615594891371865
-0.010768923638566595
-0.009637348010666656
-0.04517759518934785
-0.1415767404507106
0.05677530356965137
0.21485970793913212
0.08933894092547934
-0.025768727436441232
-0.0019833534797698473
-0.009605422203350209
0.06960741437023688
0.10060318753833068
-0.052758648575369736
0.00010354110857161545
0.00967022694080613
0.05132134860701417
0.015586975202630176
0.044190577343156234
-0.013070266217542198
-0.14595254861553095
-0.04866213215049492
0.009688643573293796
-0.13611699192827934
0.14001427200200278
0.18919991312066414
0.09725689867962795
0.020534259891701503
-0.10018155997896598
0.03790857470173682
-0.04167350846690752
-0.16447443224995467
-0.050187214699617975
-0.031598287054001355
-0.002164671487233693
0.15681309749943412
0.18383846728912415
0.012678097303285082
-0.0045747522964836055
-0.07444336000128823
-0.012634558218234618
-0.10799655785806117
0.03192832540269726
0.04109902370976264
0.06427305537933836
0.004399656984245151
0.20258170304636808
-0.07536532764586985
-0.030814961185675407
-0.06864713339346788
-0.03210936019600112
-0.1623523302032225
0.1021898331831829
0.008490670791459298
-0.015727872424068864
0.0242647802365672
0.023760060446905252
0.07633117010819684
0.06734722015434234
0.09302573071597851
0.0560394432732117
0.0740351439828704
0.09006479281463305
-5.7597929542873586e-05
0.15267266129169432
0.06895460889645437
-0.00767867400994511
-0.1278515815415638
0.006053149602634293
0.12086722666632527
0.040736111788352736
0.056224945760296983
-0.00896241098569888
-0.09581309060813595
-0.04140744379181928
0.038782996311749335
0.08449107519325226
0.04821854345656338
-0.01622766050820599
0.03211276171491675
0.12282030353428183
0.03108627311290093
0.13346902902049285
0.01341606695116096
-0.1121889012528174
0.1494143648696179
-0.03665481059840053
-0.06487156547677723
-0.07705909368684058
-0.032940038063845406
-0.04020489379612491
0.07368473962972563
0.08000641583134556
0.0015621069921060286
0.01085532126397618
-0.010943048256132371
0.08972075806837887
-0.10290061619858777
-0.06360823897080406
0.044018043704865416
-0.09541517774477527
0.013825193962281596
-0.11985928635669264
0.05721173817682391
-0.10829847825335706
0.013570141963731071
-0.08386172879950159
-0.10952415639544688
-0.020271058486558812
0.00011309590488899562
0.16576513888087252
-0.011390366766307104
0.1654124872680755
0.017955414999908593
0.1307631494960114
0.04922561271098907
0.024523278104216548
-0.001027283580866128
0.04254155859870913
-0.11787587069744318
0.08784523136058711
0.0005590129032728624
-0.030189338365297847
-0.08273798069766683
0.20322152522171102
0.08086699838799483
0.06491242742307377
0.03026606240258933
0.20369977338524617
-0.07089275178221516
0.08451607182072278
0.07000327094913293
-0.05439671668513093
0.09118207213159495
-0.05291798801659747
-0.050257661923731885
-0.047277446508049374
-0.07680981800804898
0.17831773483043342
0.06787721313957777
-0.0804667645263723
0.01345358112500581
0.18055665482721464
-0.009875031494457055
0.035825002249013256
0.11407300154152304
0.044699943544792946
-0.04832025660992425
0.04241717788307691
-0.05804877447079232